{"tick": 23957, "ts": "2026-03-20T22:42:55", "cells": 205, "consensus": 0.2028, "weights": [[-0.13826117454982334, -0.07624386028793177, -2.3655046295640645, -2.4954607764577084, -3.385207079322402, -3.0095754918042266, -3.070324427135413, -3.2531709734617933, 19.80362190164126, -3.7038276653401425, -2.3089224089309877, -2.7158104226321136], [-1.2127109045885225, -0.09635457375697883, -3.0675888236912177, -3.2453044434995872, -3.1964326732790456, -3.807629427308705, -3.1482888952483736, -3.6043114948541075, -5.054803750427277, 22.002544107224605, -5.531373946806146, -5.28567176548826], [0.6164953412036903, 0.9399460831066027, -0.3176835538835026, -1.1115025948281947, -1.6257138272650875, -1.7356247267585254, -2.2163451121703055, -1.428587621638333, -1.4196655438506385, -4.766881775683263, 12.999959684901887, 1.9909711052593408], [0.7228943878093278, 1.0344356761614462, -0.6744466153849721, -0.27776802092694386, -0.9391790563226499, -2.0333389993809834, -1.4877315309369177, -1.7029963996966346, -2.5941218366995176, -4.250915343977806, 1.890666467205826, 12.25584113369433], [1.5954986093922419, 1.5571228530396874, 0.3141638711213653, -0.2643020134296168, 0.4789873228078191, -0.11391641902814512, -0.9179877343574646, -0.18640969945955568, 1.3919236420464614, -5.77248162546604, 2.8121350100271556, 2.3394535743022526], [1.4658546696143104, 1.756400755267872, 0.34928835919052115, 0.6725004237265947, -0.5391512990106488, 0.3385069875390196, -0.5232818756208304, -1.48314351158508, -3.133780457282048, -2.986846965715253, 1.5719908840792862, 1.8554799701441622], [1.508183257960474, 1.5443830145707214, 0.8020919242544792, 0.2367898217106754, 0.3459164411772391, -0.1323870405183813, 0.3736971205113942, 0.3518055642738942, -0.3051284828869598, -5.717373837880287, 3.246589725412235, 3.0437799776579717], [1.5922835448323116, 1.72728895231911, 0.08307371050709794, 0.3875331473940756, -0.47487122172555957, 0.8283661819603023, -0.9372467772397693, 0.2887799394082095, -1.053619576455591, -4.785921201671499, 2.3451278289595856, 3.0237199942412563], [-15.637007793892298, 6.134762625479661, -0.3678251674761288, 2.2992711210818735, -5.338998117800367, 4.500044025274133, -1.6948440907796336, 0.025582282161555767, 1.006865100653997, 5.665350233468147, -5.609057979511389, -6.083576626317667], [9.161307078059604, -21.309776053378208, 16.754550468914513, 14.684650690974372, 22.488522857453468, 10.591937843006058, 22.38913211615636, 18.858924023625192, -13.132295106977878, -0.02401880649081563, -12.572246809266877, -11.381694361604124], [-0.06794215915722435, 3.7601783830376023, -7.583394679101239, -4.16911764225174, -4.362547088368763, -2.7696126739943976, -4.755896954847017, -3.8587296522567587, 2.1676597912877154, 2.4230123695450834, 0.9579081514501719, 0.22526757111717205], [0.38982273635836645, 3.0322316266828317, -3.93065244462867, -6.7232843031222735, -3.450331933997458, -2.6459263759458085, -4.012501053815599, -4.012435157794547, 2.3252523248295027, 1.911180859564291, 0.19388731471819615, 0.7365452501699021]], "bias": [-0.1240957268058986, -0.03469925693293234, -0.039054373859282614, -0.040305149942179916, -0.03603584566716364, 0.002750863989587531, -0.019204817074789944, -0.012127626382028812, 0.1567214283203747, 0.11679457901818276, -0.049756058458146145, -0.022161366404318393], "drive": [0.005404920848590672, 0.003993430611549601, 0.00019290495148652188, -0.005049616945189001]}