{"tick": 23893, "ts": "2026-03-20T22:37:58", "cells": 205, "consensus": 0.0803, "weights": [[-0.13860256724732428, -0.07553235399613903, -2.3497869989163016, -2.480792289319961, -3.3667786347957316, -2.990761688267312, -3.0503535012275846, -3.234264470938005, 19.68647930008495, -3.6813514783546126, -2.2943745254062757, -2.699975442807114], [-1.2047636487169042, -0.09549415499853076, -3.049231013159703, -3.224828365039586, -3.1758101727575565, -3.7835149961730035, -3.127459841415024, -3.58282553356377, -5.026283822800127, 21.871317054405676, -5.4991434879883645, -5.253541297962851], [0.6120441975042084, 0.9330725466481479, -0.31502825693964287, -1.105267915037481, -1.6151269700141386, -1.725821363917753, -2.2044462340674853, -1.4199565717606801, -1.4091454167333652, -4.7391294556558545, 12.922101453200982, 1.9775150302581237], [0.7167788173397919, 1.0281848898434742, -0.6707953391915198, -0.2751929059587618, -0.9333410688392451, -2.0219635423356026, -1.4811604679324244, -1.6950943144576816, -2.580011244331722, -4.2257156906352344, 1.8776458064806727, 12.183907665064675], [1.5847992878775585, 1.5456323471051743, 0.31338579437857417, -0.26213226939511514, 0.4788617061172443, -0.11275153072979326, -0.9135864956139675, -0.18321884647724096, 1.383406542085466, -5.736570175372108, 2.7951959507214457, 2.324008627054523], [1.4568341092257218, 1.7451222267143527, 0.3459714477581214, 0.6694398679301837, -0.5363555265867834, 0.3396483685986367, -0.5201019446732251, -1.476126850166519, -3.115880253907629, -2.96909337796346, 1.5634594396207262, 1.8447434970834105], [1.4982863689557417, 1.5331007018419602, 0.7980236006611034, 0.23650324689688262, 0.3435651737453974, -0.13105574528845215, 0.3738832195259244, 0.35294719383459805, -0.3024762484775709, -5.684756725419616, 3.22658872695554, 3.0238346438918464], [1.5827402233361603, 1.717127126545513, 0.08183259852204242, 0.3836355747859463, -0.47231054802509354, 0.8249264018549158, -0.9319185500774049, 0.2882931804038595, -1.0482024355919022, -4.755958735105324, 2.330473324907448, 3.005035741606385], [-15.541642814999511, 6.101263407787095, -0.36756114066140033, 2.2872579312448353, -5.310278368482084, 4.473126559411662, -1.6848234152890305, 0.019349094002378223, 1.004307868039497, 5.62877539210644, -5.573254967168535, -6.044859291994511], [9.11067794428337, -21.178845808690742, 16.6504421037299, 14.588957157634706, 22.351259344523037, 10.520107337481305, 22.252895986777368, 18.748526381371487, -13.05061805343509, -0.019940569411532647, -12.498929308343529, -11.31407055418068], [-0.06808110976637032, 3.736612466621522, -7.536084282198972, -4.141087209393229, -4.334674023076155, -2.7510532880753447, -4.726683150555642, -3.834093055657451, 2.151694015888813, 2.4074074201151183, 0.9537910642039499, 0.2240497474187862], [0.3873479163588006, 3.0141305933868816, -3.905129768003371, -6.682538566964972, -3.4279452222670015, -2.6300272072970663, -3.9878832051304194, -3.9882071797122034, 2.308591405202958, 1.8988426435811256, 0.19312224218894272, 0.733634286192697]], "bias": [-0.1229634760979841, -0.03442440749193991, -0.038821753672682195, -0.040217227155104555, -0.03566678607231043, 0.002687845868593064, -0.019039766674602932, -0.012192304321315645, 0.1552648553032855, 0.11602951639756368, -0.04922916251077677, -0.02181249654764736], "drive": [0.004717661361421789, 0.0019066626195342483, -0.001047215845870969, -0.003634717378320393]}